tree
version=v4
num_class=1
num_tree_per_iteration=1
label_index=0
max_feature_idx=52
objective=binary sigmoid:1
feature_names=Price_limit_bin Freq_visit_30d Rate_st_redeem_30d Rate_invalid_14d no_history_indicator_14d Rate_same_user_st_redeem_30d no_hist_rcs_marker_14d Freq_visit_14d no_hist_rcs_marker_30d no_hist_txns_marker_14d Rate_same_user_invalid_30d Generosity_ratio Coupon_amt_cent Rt_avgspend_vs_pricelimit_14d Holiday_marker End_bf_receive_marker no_hist_visits_marker_7d no_hist_txns_marker_7d Expiry_span_bin Rate_same_user_invalid_14d Rate_same_user_fh_redeem_14d Rate_same_user_fh_redeem_30d Weekday_marker no_hist_visits_marker_30d no_hist_rcs_marker_7d Rate_st_redeem_14d Rate_same_user_st_redeem_7d Rt_avgreduce_vs_couponamt_14d Rate_same_user_st_redeem_14d Rate_fh_redeem_14d no_history_indicator_30d Rate_st_redeem_7d Rt_avgspend_vs_pricelimit_7d Freq_purchase_30d Rt_avgreduce_vs_couponamt_30d Rate_same_user_fh_redeem_7d Rt_avgspend_vs_pricelimit_30d no_hist_txns_marker_30d Rate_fh_redeem_7d Rt_avgreduce_vs_couponamt_7d no_history_indicator_7d Rate_same_user_invalid_7d Freq_purchase_14d Rate_fh_redeem_30d Workday_marker Freq_purchase_7d Price_limit_cent Rate_invalid_7d Freq_visit_7d no_hist_visits_marker_14d Coupon_limit_bin Rate_invalid_30d Start_bf_receive_marker
feature_infos=-1:1:0:2 [0:1] [0:0.44400000000000001] none [0:1] [0:1] [0:1] [0:1] [0:1] [0:1] none [0:20000] [0:120000] [0:356611] [0:1] [0:0] [0:1] [0:1] -1:0:1 none [0:1] [0:1] [0:1] [0:1] [0:1] [0:0.45500000000000002] [0:1] [0:770] [0:1] [0:0.45500000000000002] [0:1] [0:0.498] [0:245500] [0:5] [0:2555] [0:1] [0:356611] [0:1] [0:0.498] [0:700] [0:1] none [0:5.0709999999999997] [0:0.44400000000000001] [0:1] [0:5] [0:699900] none [0:1] [0:1] -1:0:1:2 none [0:1]
tree_sizes=566 1169 1368 811 477 588 365 819 816 815

Tree=0
num_leaves=4
num_cat=0
split_feature=15 11 12
split_gain=6.67618e+06 4.65661e-10 2.91038e-11
threshold=inf 0.13534355921481642 1405.0000000000002
decision_type=8 10 10
left_child=-1 2 -2
right_child=1 -3 -4
leaf_value=-0.099999924393466499 0.10000007560653351 0.10000007560653351 0.10000007560653351
leaf_weight=835086.52065551281 46808.226945877075 779954.19967651367 7197.7480669021606
leaf_count=3249038 5118 85280 787
internal_value=-6.74088e-05 0.1 0.1
internal_weight=1.66905e+06 833960 54006
internal_count=3340223 91185 5905
is_linear=0
shrinkage=1


Tree=1
num_leaves=9
num_cat=1
split_feature=15 0 11 28 1 5 5 5
split_gain=6.04086e+06 4.65661e-10 4.65661e-10 4.65661e-10 2.91038e-11 2.91038e-11 3.63798e-12 1.13687e-13
threshold=inf 0 0.17141621279142177 0.070500000000000021 0.81650000000000011 0.25850000000000006 0.10150000000000002 0.69200000000000006
decision_type=8 1 10 2 2 2 2 2
left_child=1 4 -2 -3 5 -1 -6 -7
right_child=2 3 -4 -5 6 7 -8 -9
leaf_value=-0.095241873341897196 0.095241861499773789 -0.095241873341897196 0.095241861499773789 -0.095241873341897196 -0.095241873341897196 -0.095241873341897196 -0.095241873341897196 -0.095241873341897196
leaf_weight=52453.66052120924 78293.399002075195 582148.46112909913 753585.36911773682 190265.85325145721 6408.3251611888409 187.92967966198921 1531.3833241760731 6.6659913659095755
leaf_count=204590 8582 2270609 82603 742112 24995 733 5973 26
internal_value=-6.42779e-05 -0.0952419 0.0952419 -0.0952419 -0.0952419 -0.0952419 -0.0952419 -0.0952419
internal_weight=1.66488e+06 833002 831879 772414 60588 52648.3 7939.71 194.596
internal_count=3340223 3249038 91185 3012721 236317 205349 30968 759
cat_boundaries=0 1
cat_threshold=4
is_linear=0
shrinkage=0.05


Tree=2
num_leaves=11
num_cat=0
split_feature=15 11 1 1 2 13 2 5 5 2
split_gain=5.49207e+06 9.31323e-10 4.65661e-10 1.16415e-10 5.82077e-11 5.82077e-11 7.27596e-12 7.27596e-12 1.13687e-13 7.10543e-15
threshold=inf 995.04950495049513 0.71650000000000003 0.88350000000000006 0.042500000000000003 2.2035000000000005 0.42200000000000004 0.21350000000000002 0.36250000000000004 0.42650000000000005
decision_type=8 10 2 2 2 10 2 2 2 2
left_child=2 -2 -1 4 -4 -5 7 -6 -9 -8
right_child=1 -3 3 5 6 -7 9 8 -10 -11
leaf_value=-0.091131781167162321 0.09113178009606436 0.09113178009606436 -0.091131781167162321 -0.091131781167162321 -0.091131781167162321 -0.091131781167162321 -0.091131781167162335 -0.091131781167162321 -0.091131781167162321 -0.091131781167162307
leaf_weight=664358.45727443695 823888.70989322662 2174.2073822021484 86581.342581361532 51177.544991075993 10505.47819852829 14369.418742805719 5.0918370485305768 170.06735742092133 5.6010207533836356 5.6010207533836365
leaf_count=2609504 90945 240 340079 201018 41264 56441 20 668 22 22
internal_value=-6.15006e-05 0.0911318 -0.0911318 -0.0911318 -0.0911318 -0.0911318 -0.0911318 -0.0911318 -0.0911318 -0.0911318
internal_weight=1.65324e+06 826063 827179 162820 97273.2 65547 10691.8 10681.1 175.668 10.6929
internal_count=3340223 91185 3249038 639534 382075 257459 41996 41954 690 42
is_linear=0
shrinkage=0.05


Tree=3
num_leaves=6
num_cat=0
split_feature=15 2 11 2 39
split_gain=5.01369e+06 4.65661e-10 4.65661e-10 2.27374e-13 2.27374e-13
threshold=inf 0.37150000000000005 0.24981784386423767 0.43700000000000006 0.35750000000000004
decision_type=8 2 10 2 10
left_child=1 -1 -2 4 -3
right_child=2 3 -4 -5 -6
leaf_value=-0.087549093642628473 0.087549098791659147 -0.087549093642628473 0.087549098791659147 -0.087549093642628473 -0.087549093642628473
leaf_weight=817768.95984470844 217891.44307327271 346.51440525054932 599201.46845149994 9.3176111876964551 71.770788878202438
leaf_count=3247340 24316 1376 66869 37 285
internal_value=-5.9084e-05 -0.0875491 0.0875491 -0.0875491 -0.0875491
internal_weight=1.63529e+06 818197 817093 427.603 418.285
internal_count=3340223 3249038 91185 1698 1661
is_linear=0
shrinkage=0.05


Tree=4
num_leaves=3
num_cat=0
split_feature=15 11
split_gain=4.59342e+06 4.65661e-10
threshold=inf 125.00000000000001
decision_type=8 10
left_child=-1 -2
right_child=1 -3
leaf_value=-0.084401506546029667 0.084401497260894839 0.084401497260894839
leaf_weight=806563.44442713261 467261.50804328918 338214.05032348633
leaf_count=3249038 52897 38288
internal_value=-5.69631e-05 0.0844015
internal_weight=1.61204e+06 805476
internal_count=3340223 91185
is_linear=0
shrinkage=0.05


Tree=5
num_leaves=4
num_cat=0
split_feature=15 25 1
split_gain=4.2199e+06 9.31323e-10 2.27374e-13
threshold=inf 0.33750000000000008 0.95000000000000007
decision_type=8 2 2
left_child=1 -1 -3
right_child=-2 2 -4
leaf_value=-0.081617121915522728 0.081617117773725406 -0.081617121915522728 -0.081617121915522728
leaf_weight=791908.93156000972 791410.30980968475 398.43056657910347 7.8075799942016593
leaf_count=3245703 91157 1633 32
internal_value=-4.66339e-05 -0.0816171 -0.0816171
internal_weight=1.58373e+06 792315 406.238
internal_count=3338525 3247368 1665
is_linear=0
shrinkage=0.05


Tree=6
num_leaves=2
num_cat=0
split_feature=15
split_gain=3.88917e+06
threshold=inf
decision_type=8
left_child=-1
right_child=-2
leaf_value=-0.079139120029931093 0.079139115556990935
leaf_weight=776662.26193964481 775775.3007183075
leaf_count=3247368 91157
internal_value=-4.52171e-05
internal_weight=1.55244e+06
internal_count=3338525
is_linear=0
shrinkage=0.05


Tree=7
num_leaves=6
num_cat=1
split_feature=15 0 11 11 11
split_gain=3.59324e+06 2.32831e-10 1.16415e-10 1.45519e-11 3.63798e-12
threshold=inf 0 0.17642734666240042 0.16300188209752733 0.17236921613854808
decision_type=8 1 10 10 10
left_child=-1 2 3 -2 -5
right_child=1 -3 -4 4 -6
leaf_value=-0.076921967389413828 0.076921969378204488 0.076921969378204488 0.076921969378204488 0.076921969378204488 0.076921969378204488
leaf_weight=759528.73059868813 39532.247543334961 352061.7127532959 357754.35639953613 8613.8686752319336 699.09658813476562
leaf_count=3247368 4750 42302 42986 1035 84
internal_value=-4.39499e-05 0.076922 0.076922 0.076922 0.076922
internal_weight=1.51819e+06 758661 406600 48845.2 9312.97
internal_count=3338525 91157 48855 5869 1119
cat_boundaries=0 1
cat_threshold=2
is_linear=0
shrinkage=0.05


Tree=8
num_leaves=6
num_cat=0
split_feature=15 1 11 2 11
split_gain=3.32721e+06 2.32831e-10 2.32831e-10 2.91038e-11 7.27596e-12
threshold=inf 0.81650000000000011 0.085695922739400562 0.27250000000000008 0.064154319572684929
decision_type=8 2 10 2 10
left_child=1 -1 4 -3 -2
right_child=2 3 -4 -5 -6
leaf_value=-0.074928722384983729 0.074928716803835616 -0.074928722384983729 0.074928716803835616 -0.074928722384983729 0.074928716803835616
leaf_weight=649796.05271446705 13612.230213165283 91334.309479176998 711279.63791656494 80.115612924098969 15472.13517665863
leaf_count=2846866 1676 400151 87576 351 1905
internal_value=-4.28121e-05 -0.0749287 0.0749287 -0.0749287 0.0749287
internal_weight=1.48157e+06 741210 740364 91414.4 29084.4
internal_count=3338525 3247368 91157 400502 3581
is_linear=0
shrinkage=0.05


Tree=9
num_leaves=6
num_cat=0
split_feature=52 2 11 21 21
split_gain=3.08702e+06 2.32831e-10 2.32831e-10 2.32831e-10 9.09495e-13
threshold=inf 0.40050000000000008 1325.0000000000002 0.26350000000000007 0.58200000000000007
decision_type=8 2 10 2 2
left_child=1 3 -2 -1 -5
right_child=2 -3 -4 4 -6
leaf_value=-0.073129106731193619 0.073129102303875246 -0.073129106731193619 0.073129102303875246 -0.073129106731193619 -0.073129106731193619
leaf_weight=717985.35916544497 719369.03468370438 243.22170481085777 1772.0592498779297 3508.928854689002 228.10371950268745
leaf_count=3229465 90933 1094 224 15783 1026
internal_value=-4.17846e-05 -0.0731291 0.0731291 -0.0731291 -0.0731291
internal_weight=1.44311e+06 721966 721141 721722 3737.03
internal_count=3338525 3247368 91157 3246274 16809
is_linear=0
shrinkage=0.05


end of trees

feature_importances:
Generosity_ratio=11
End_bf_receive_marker=9
Rate_st_redeem_30d=7
Freq_visit_30d=5
Rate_same_user_st_redeem_30d=5
Price_limit_bin=2
Rate_same_user_fh_redeem_30d=2
Coupon_amt_cent=1
Rt_avgspend_vs_pricelimit_14d=1
Rate_st_redeem_14d=1
Rate_same_user_st_redeem_14d=1
Rt_avgreduce_vs_couponamt_7d=1
Start_bf_receive_marker=1

parameters:
[boosting: gbdt]
[objective: binary]
[metric: binary_logloss]
[tree_learner: serial]
[device_type: cpu]
[data_sample_strategy: bagging]
[data: ]
[valid: ]
[num_iterations: 10]
[learning_rate: 0.05]
[num_leaves: 31]
[num_threads: 0]
[seed: 0]
[deterministic: 0]
[force_col_wise: 0]
[force_row_wise: 0]
[histogram_pool_size: -1]
[max_depth: -1]
[min_data_in_leaf: 20]
[min_sum_hessian_in_leaf: 0.001]
[bagging_fraction: 0.8]
[pos_bagging_fraction: 1]
[neg_bagging_fraction: 1]
[bagging_freq: 5]
[bagging_seed: 3]
[bagging_by_query: 0]
[feature_fraction: 0.9]
[feature_fraction_bynode: 1]
[feature_fraction_seed: 2]
[extra_trees: 0]
[extra_seed: 6]
[early_stopping_round: 0]
[early_stopping_min_delta: 0]
[first_metric_only: 0]
[max_delta_step: 0]
[lambda_l1: 0]
[lambda_l2: 0]
[linear_lambda: 0]
[min_gain_to_split: 0]
[drop_rate: 0.1]
[max_drop: 50]
[skip_drop: 0.5]
[xgboost_dart_mode: 0]
[uniform_drop: 0]
[drop_seed: 4]
[top_rate: 0.2]
[other_rate: 0.1]
[min_data_per_group: 100]
[max_cat_threshold: 32]
[cat_l2: 10]
[cat_smooth: 10]
[max_cat_to_onehot: 4]
[top_k: 20]
[monotone_constraints: ]
[monotone_constraints_method: basic]
[monotone_penalty: 0]
[feature_contri: ]
[forcedsplits_filename: ]
[refit_decay_rate: 0.9]
[cegb_tradeoff: 1]
[cegb_penalty_split: 0]
[cegb_penalty_feature_lazy: ]
[cegb_penalty_feature_coupled: ]
[path_smooth: 0]
[interaction_constraints: ]
[verbosity: 0]
[saved_feature_importance_type: 0]
[use_quantized_grad: 0]
[num_grad_quant_bins: 4]
[quant_train_renew_leaf: 0]
[stochastic_rounding: 1]
[linear_tree: 0]
[max_bin: 255]
[max_bin_by_feature: ]
[min_data_in_bin: 3]
[bin_construct_sample_cnt: 200000]
[data_random_seed: 1]
[is_enable_sparse: 1]
[enable_bundle: 1]
[use_missing: 1]
[zero_as_missing: 0]
[feature_pre_filter: 1]
[pre_partition: 0]
[two_round: 0]
[header: 0]
[label_column: ]
[weight_column: ]
[group_column: ]
[ignore_column: ]
[categorical_feature: 0,18,50]
[forcedbins_filename: ]
[precise_float_parser: 0]
[parser_config_file: ]
[objective_seed: 5]
[num_class: 1]
[is_unbalance: 0]
[scale_pos_weight: 1]
[sigmoid: 1]
[boost_from_average: 1]
[reg_sqrt: 0]
[alpha: 0.9]
[fair_c: 1]
[poisson_max_delta_step: 0.7]
[tweedie_variance_power: 1.5]
[lambdarank_truncation_level: 30]
[lambdarank_norm: 1]
[label_gain: ]
[lambdarank_position_bias_regularization: 0]
[eval_at: ]
[multi_error_top_k: 1]
[auc_mu_weights: ]
[num_machines: 1]
[local_listen_port: 12400]
[time_out: 120]
[machine_list_filename: ]
[machines: ]
[gpu_platform_id: -1]
[gpu_device_id: -1]
[gpu_use_dp: 0]
[num_gpu: 1]

end of parameters

pandas_categorical:[]
